<?xml version="1.0" encoding="UTF-8" standalone="yes"?>
<PMML xmlns="http://www.dmg.org/PMML-4_3" xmlns:data="http://jpmml.org/jpmml-model/InlineTable" version="4.3">
	<Header>
		<Application name="JPMML-SkLearn" version="1.5.12"/>
		<Timestamp>2019-09-27T01:49:47Z</Timestamp>
	</Header>
	<MiningBuildTask>
		<Extension>PMMLPipeline(steps=[('mapper', DataFrameMapper(default=False, df_out=False,
        features=[(['PCLASS', 'AGE', 'SIBSP', 'PARCH', 'FARE'], None), (['NAME'], [CategoricalDomain(invalid_value_replacement=None,
         invalid_value_treatment='as_is', missing_value_replacement=None,
         missing_value_treatment='as_is', missing_values=None,
         with_data=True, with_statisti...       dtype=&lt;class 'numpy.float64'&gt;, handle_unknown='ignore',
       n_values=None, sparse=True)])],
        input_df=False, sparse=False)),
       ('model', LGBMClassifier(boosting_type='gbdt', class_weight=None, colsample_bytree=1.0,
        importance_type='split', learning_rate=0.1, max_depth=-1,
        min_child_samples=20, min_child_weight=0.001, min_split_gain=0.0,
        n_estimators=100, n_jobs=-1, num_leaves=31, objective=None,
        random_state=1234, reg_alpha=0.0, reg_lambda=0.0, silent=True,
        subsample=1.0, subsample_for_bin=200000, subsample_freq=0))])</Extension>
	</MiningBuildTask>
	<DataDictionary>
		<DataField name="SURVIVED" optype="categorical" dataType="integer">
			<Value value="0"/>
			<Value value="1"/>
		</DataField>
		<DataField name="PCLASS" optype="continuous" dataType="double"/>
		<DataField name="AGE" optype="continuous" dataType="double"/>
		<DataField name="SIBSP" optype="continuous" dataType="double"/>
		<DataField name="PARCH" optype="continuous" dataType="double"/>
		<DataField name="FARE" optype="continuous" dataType="double"/>
		<DataField name="SEX" optype="categorical" dataType="integer">
			<Value value="0"/>
			<Value value="1"/>
		</DataField>
		<DataField name="CABIN" optype="categorical" dataType="integer">
			<Value value="0"/>
			<Value value="2"/>
			<Value value="3"/>
			<Value value="5"/>
			<Value value="6"/>
			<Value value="8"/>
			<Value value="9"/>
			<Value value="10"/>
			<Value value="12"/>
			<Value value="13"/>
			<Value value="14"/>
			<Value value="15"/>
			<Value value="16"/>
			<Value value="17"/>
			<Value value="18"/>
			<Value value="21"/>
			<Value value="22"/>
			<Value value="24"/>
			<Value value="25"/>
			<Value value="26"/>
			<Value value="27"/>
			<Value value="30"/>
			<Value value="31"/>
			<Value value="32"/>
			<Value value="33"/>
			<Value value="35"/>
			<Value value="36"/>
			<Value value="37"/>
			<Value value="38"/>
			<Value value="39"/>
			<Value value="40"/>
			<Value value="42"/>
			<Value value="43"/>
			<Value value="44"/>
			<Value value="45"/>
			<Value value="47"/>
			<Value value="48"/>
			<Value value="50"/>
			<Value value="51"/>
			<Value value="52"/>
			<Value value="53"/>
			<Value value="54"/>
			<Value value="55"/>
			<Value value="56"/>
			<Value value="57"/>
			<Value value="58"/>
			<Value value="59"/>
			<Value value="60"/>
			<Value value="61"/>
			<Value value="62"/>
			<Value value="63"/>
			<Value value="65"/>
			<Value value="66"/>
			<Value value="67"/>
			<Value value="69"/>
			<Value value="70"/>
			<Value value="71"/>
			<Value value="72"/>
			<Value value="73"/>
			<Value value="74"/>
			<Value value="77"/>
			<Value value="78"/>
			<Value value="79"/>
			<Value value="80"/>
			<Value value="82"/>
			<Value value="84"/>
			<Value value="86"/>
			<Value value="87"/>
			<Value value="88"/>
			<Value value="89"/>
			<Value value="90"/>
			<Value value="92"/>
			<Value value="94"/>
			<Value value="97"/>
			<Value value="98"/>
			<Value value="99"/>
			<Value value="100"/>
			<Value value="101"/>
			<Value value="102"/>
			<Value value="104"/>
			<Value value="105"/>
			<Value value="106"/>
			<Value value="107"/>
			<Value value="108"/>
			<Value value="110"/>
			<Value value="111"/>
			<Value value="112"/>
			<Value value="113"/>
			<Value value="114"/>
			<Value value="116"/>
			<Value value="117"/>
			<Value value="118"/>
			<Value value="119"/>
			<Value value="120"/>
			<Value value="121"/>
			<Value value="122"/>
			<Value value="123"/>
			<Value value="124"/>
			<Value value="126"/>
			<Value value="127"/>
			<Value value="128"/>
			<Value value="129"/>
			<Value value="131"/>
			<Value value="132"/>
			<Value value="133"/>
			<Value value="137"/>
			<Value value="138"/>
			<Value value="139"/>
			<Value value="140"/>
			<Value value="141"/>
			<Value value="142"/>
			<Value value="143"/>
			<Value value="144"/>
			<Value value="145"/>
			<Value value="146"/>
			<Value value="147"/>
			<Value value="148"/>
			<Value value="149"/>
			<Value value="150"/>
			<Value value="151"/>
			<Value value="152"/>
			<Value value="153"/>
			<Value value="154"/>
			<Value value="155"/>
			<Value value="156"/>
			<Value value="157"/>
			<Value value="158"/>
			<Value value="160"/>
			<Value value="161"/>
			<Value value="163"/>
			<Value value="164"/>
			<Value value="165"/>
			<Value value="167"/>
			<Value value="169"/>
			<Value value="170"/>
			<Value value="171"/>
			<Value value="172"/>
			<Value value="173"/>
			<Value value="177"/>
			<Value value="178"/>
			<Value value="179"/>
			<Value value="180"/>
			<Value value="181"/>
			<Value value="182"/>
			<Value value="183"/>
			<Value value="184"/>
			<Value value="185"/>
			<Value value="186"/>
		</DataField>
		<DataField name="EMBARKED" optype="categorical" dataType="integer">
			<Value value="0"/>
			<Value value="1"/>
			<Value value="2"/>
			<Value value="3"/>
		</DataField>
	</DataDictionary>
	<TransformationDictionary>
		<DerivedField name="SEX=0" optype="continuous" dataType="double">
			<NormDiscrete field="SEX" value="0"/>
		</DerivedField>
		<DerivedField name="SEX=1" optype="continuous" dataType="double">
			<NormDiscrete field="SEX" value="1"/>
		</DerivedField>
		<DerivedField name="CABIN=186" optype="continuous" dataType="double">
			<NormDiscrete field="CABIN" value="186"/>
		</DerivedField>
		<DerivedField name="EMBARKED=0" optype="continuous" dataType="double">
			<NormDiscrete field="EMBARKED" value="0"/>
		</DerivedField>
		<DerivedField name="EMBARKED=1" optype="continuous" dataType="double">
			<NormDiscrete field="EMBARKED" value="1"/>
		</DerivedField>
		<DerivedField name="EMBARKED=2" optype="continuous" dataType="double">
			<NormDiscrete field="EMBARKED" value="2"/>
		</DerivedField>
	</TransformationDictionary>
	<MiningModel functionName="classification" algorithmName="LightGBM">
		<MiningSchema>
			<MiningField name="SURVIVED" usageType="target"/>
			<MiningField name="PCLASS" importance="75.0"/>
			<MiningField name="AGE" importance="1259.0"/>
			<MiningField name="SEX" importance="18.0" missingValueTreatment="asIs" invalidValueTreatment="asIs"/>
			<MiningField name="SIBSP" importance="118.0"/>
			<MiningField name="CABIN" importance="43.0" missingValueTreatment="asIs" invalidValueTreatment="asIs"/>
			<MiningField name="FARE" importance="1203.0"/>
			<MiningField name="EMBARKED" importance="53.0" missingValueTreatment="asIs" invalidValueTreatment="asIs"/>
			<MiningField name="PARCH" importance="76.0"/>
		</MiningSchema>
		<ModelStats>
			<UnivariateStats field="SEX">
				<Counts totalFreq="891.0" missingFreq="0.0" invalidFreq="0.0"/>
				<DiscrStats>
					<Array type="string">0 1</Array>
					<Array type="int">314 577</Array>
				</DiscrStats>
			</UnivariateStats>
			<UnivariateStats field="CABIN">
				<Counts totalFreq="891.0" missingFreq="0.0" invalidFreq="0.0"/>
				<DiscrStats>
					<Array type="string">0 2 3 5 6 8 9 10 12 13 14 15 16 17 18 21 22 24 25 26 27 30 31 32 33 35 36 37 38 39 40 42 43 44 45 47 48 50 51 52 53 54 55 56 57 58 59 60 61 62 63 65 66 67 69 70 71 72 73 74 77 78 79 80 82 84 86 87 88 89 90 92 94 97 98 99 100 101 102 104 105 106 107 108 110 111 112 113 114 116 117 118 119 120 121 122 123 124 126 127 128 129 131 132 133 137 138 139 140 141 142 143 144 145 146 147 148 149 150 151 152 153 154 155 156 157 158 160 161 163 164 165 167 169 170 171 172 173 177 178 179 180 181 182 183 184 185 186</Array>
					<Array type="int">1 1 1 1 1 1 1 1 1 1 1 1 1 1 1 1 1 2 1 2 2 2 1 1 2 1 1 1 1 1 1 2 2 1 2 2 2 1 1 1 2 1 1 1 1 1 1 4 1 1 1 1 1 1 1 2 2 2 2 1 1 2 3 4 1 1 1 1 1 1 1 2 1 1 2 2 1 1 2 1 2 1 1 1 1 1 2 2 1 1 3 1 1 1 2 1 2 1 2 1 1 2 2 2 1 1 1 1 1 1 1 1 1 1 1 1 3 1 2 1 2 2 1 2 1 1 1 1 2 1 1 1 1 1 2 1 1 2 1 1 2 3 3 1 2 4 1 687</Array>
				</DiscrStats>
			</UnivariateStats>
			<UnivariateStats field="EMBARKED">
				<Counts totalFreq="891.0" missingFreq="0.0" invalidFreq="0.0"/>
				<DiscrStats>
					<Array type="string">0 1 2 3</Array>
					<Array type="int">168 77 644 2</Array>
				</DiscrStats>
			</UnivariateStats>
		</ModelStats>
		<Segmentation multipleModelMethod="modelChain">
			<Segment id="1">
				<True/>
				<MiningModel functionName="regression">
					<MiningSchema>
						<MiningField name="PCLASS"/>
						<MiningField name="AGE"/>
						<MiningField name="SEX"/>
						<MiningField name="SIBSP"/>
						<MiningField name="CABIN"/>
						<MiningField name="FARE"/>
						<MiningField name="EMBARKED"/>
						<MiningField name="PARCH"/>
					</MiningSchema>
					<Output>
						<OutputField name="lgbmValue" optype="continuous" dataType="double" feature="predictedValue" isFinalResult="false"/>
						<OutputField name="transformedLgbmValue" optype="continuous" dataType="double" feature="transformedValue" isFinalResult="false">
							<Apply function="/">
								<Constant dataType="double">1.0</Constant>
								<Apply function="+">
									<Constant dataType="double">1.0</Constant>
									<Apply function="exp">
										<Apply function="*">
											<Constant dataType="double">-1.0</Constant>
											<FieldRef field="lgbmValue"/>
										</Apply>
									</Apply>
								</Apply>
							</Apply>
						</OutputField>
					</Output>
					<Segmentation multipleModelMethod="sum">
						<Segment id="1">
							<True/>
							<TreeModel functionName="regression" missingValueStrategy="none" noTrueChildStrategy="returnLastPrediction" splitCharacteristic="multiSplit">
								<MiningSchema>
									<MiningField name="PCLASS"/>
									<MiningField name="AGE"/>
									<MiningField name="PARCH"/>
									<MiningField name="FARE"/>
									<MiningField name="SEX"/>
									<MiningField name="CABIN"/>
									<MiningField name="EMBARKED"/>
								</MiningSchema>
								<Node score="-0.4453131521610018">
									<True/>
									<Node score="-0.21276137456416133">
										<SimplePredicate field="SEX=0" operator="greaterThan" value="1.0000000180025095E-35"/>
										<Node score="-0.37932738606603056">
											<SimplePredicate field="PCLASS" operator="greaterThan" value="2.5000000000000004"/>
											<Node score="-0.5867957021674712">
												<SimplePredicate field="FARE" operator="greaterThan" value="23.725000000000005"/>
											</Node>
											<Node score="-0.4885144705287943">
												<SimplePredicate field="AGE" operator="greaterThan" value="16.500000000000004"/>
												<Node score="-0.40703067280230815">
													<SimplePredicate field="AGE" operator="lessOrEqual" value="27.500000000000004"/>
												</Node>
											</Node>
											<Node score="-0.28041280077415126">
												<SimplePredicate field="EMBARKED=1" operator="greaterThan" value="1.0000000180025095E-35"/>
											</Node>
										</Node>
										<Node score="-0.21276137456416128">
											<SimplePredicate field="FARE" operator="greaterThan" value="29.850000000000005"/>
											<Node score="-0.2530300806415362">
												<SimplePredicate field="FARE" operator="greaterThan" value="141.07705"/>
											</Node>
										</Node>
										<Node score="-0.29732565732664873">
											<SimplePredicate field="AGE" operator="greaterThan" value="37.50000000000001"/>
										</Node>
										<Node score="-0.25974153165443215">
											<SimplePredicate field="AGE" operator="lessOrEqual" value="27.500000000000004"/>
										</Node>
									</Node>
									<Node score="-0.6355827883765985">
										<SimplePredicate field="CABIN=186" operator="greaterThan" value="1.0000000180025095E-35"/>
										<Node score="-0.42417208147037994">
											<SimplePredicate field="AGE" operator="lessOrEqual" value="9.500000000000002"/>
										</Node>
										<Node score="-0.5147766701444737">
											<SimplePredicate field="FARE" operator="greaterThan" value="55.67085000000001"/>
										</Node>
										<Node score="-0.582730111650044">
											<SimplePredicate field="EMBARKED=0" operator="greaterThan" value="1.0000000180025095E-35"/>
											<Node score="-0.5171927925091162">
												<SimplePredicate field="FARE" operator="greaterThan" value="11.187500000000002"/>
											</Node>
										</Node>
										<Node score="-0.6355827883765987">
											<SimplePredicate field="PARCH" operator="greaterThan" value="1.0000000180025095E-35"/>
										</Node>
										<Node score="-0.5537463857032237">
											<SimplePredicate field="FARE" operator="greaterThan" value="23.125000000000004"/>
										</Node>
										<Node score="-0.6355827883765987">
											<SimplePredicate field="FARE" operator="greaterThan" value="13.208350000000001"/>
										</Node>
										<Node score="-0.5751797292605362">
											<SimplePredicate field="FARE" operator="greaterThan" value="7.910400000000001"/>
											<Node score="-0.5349110231831612">
												<SimplePredicate field="FARE" operator="greaterThan" value="8.229150000000002"/>
												<Node score="-0.6238377491040309">
													<SimplePredicate field="AGE" operator="lessOrEqual" value="26.500000000000004"/>
												</Node>
												<Node score="-0.6017570752716036">
													<SimplePredicate field="AGE" operator="greaterThan" value="31.500000000000004"/>
												</Node>
											</Node>
											<Node score="-0.5298774349234893">
												<SimplePredicate field="AGE" operator="greaterThan" value="30.250000000000004"/>
											</Node>
										</Node>
										<Node score="-0.6227700182610701">
											<SimplePredicate field="AGE" operator="lessOrEqual" value="32.25000000000001"/>
											<Node score="-0.5533675134686247">
												<SimplePredicate field="AGE" operator="greaterThan" value="23.250000000000004"/>
											</Node>
										</Node>
										<Node score="-0.6127275768191696">
											<SimplePredicate field="FARE" operator="greaterThan" value="7.745850000000001"/>
										</Node>
									</Node>
									<Node score="-0.3607488693985144">
										<SimplePredicate field="AGE" operator="lessOrEqual" value="36.25000000000001"/>
										<Node score="-0.4065545225615284">
											<SimplePredicate field="FARE" operator="greaterThan" value="49.752100000000006"/>
										</Node>
									</Node>
									<Node score="-0.543665089721721">
										<SimplePredicate field="AGE" operator="lessOrEqual" value="47.50000000000001"/>
									</Node>
									<Node score="-0.5298774349234893">
										<SimplePredicate field="AGE" operator="greaterThan" value="50.50000000000001"/>
									</Node>
								</Node>
							</TreeModel>
						</Segment>
						<Segment id="2">
							<True/>
							<TreeModel functionName="regression" missingValueStrategy="none" noTrueChildStrategy="returnLastPrediction" splitCharacteristic="multiSplit">
								<MiningSchema>
									<MiningField name="PCLASS"/>
									<MiningField name="AGE"/>
									<MiningField name="SIBSP"/>
									<MiningField name="PARCH"/>
									<MiningField name="FARE"/>
									<MiningField name="SEX"/>
									<MiningField name="CABIN"/>
									<MiningField name="EMBARKED"/>
								</MiningSchema>
								<Node score="-0.08732448352256438">
									<True/>
									<Node score="0.22370894919660725">
										<SimplePredicate field="SEX=0" operator="greaterThan" value="1.0000000180025095E-35"/>
										<Node score="0.0968877073742312">
											<SimplePredicate field="PCLASS" operator="greaterThan" value="2.5000000000000004"/>
											<Node score="-0.11774695167723846">
												<SimplePredicate field="FARE" operator="greaterThan" value="24.80835"/>
											</Node>
											<Node score="0.09160858925029232">
												<SimplePredicate field="AGE" operator="greaterThan" value="7.500000000000001"/>
												<Node score="-0.03380018099512844">
													<SimplePredicate field="FARE" operator="greaterThan" value="8.585450000000002"/>
													<Node score="0.031207785721537637">
														<SimplePredicate field="AGE" operator="greaterThan" value="26.500000000000004"/>
													</Node>
												</Node>
											</Node>
											<Node score="0.16316860905050312">
												<SimplePredicate field="EMBARKED=1" operator="greaterThan" value="1.0000000180025095E-35"/>
											</Node>
										</Node>
										<Node score="0.22370894919660725">
											<SimplePredicate field="FARE" operator="greaterThan" value="29.850000000000005"/>
											<Node score="0.19008395059865552">
												<SimplePredicate field="FARE" operator="greaterThan" value="141.07705"/>
											</Node>
										</Node>
										<Node score="0.15284425911464808">
											<SimplePredicate field="AGE" operator="greaterThan" value="37.50000000000001"/>
										</Node>
										<Node score="0.1844612056081793">
											<SimplePredicate field="AGE" operator="lessOrEqual" value="27.500000000000004"/>
										</Node>
									</Node>
									<Node score="-0.15296267718939505">
										<SimplePredicate field="CABIN=186" operator="greaterThan" value="1.0000000180025095E-35"/>
										<Node score="0.04370066380444304">
											<SimplePredicate field="AGE" operator="lessOrEqual" value="9.500000000000002"/>
										</Node>
										<Node score="-0.03773772704256874">
											<SimplePredicate field="FARE" operator="greaterThan" value="55.67085000000001"/>
										</Node>
										<Node score="-0.10147102531829089">
											<SimplePredicate field="EMBARKED=0" operator="greaterThan" value="1.0000000180025095E-35"/>
											<Node score="-0.03996106543049009">
												<SimplePredicate field="FARE" operator="greaterThan" value="11.187500000000002"/>
											</Node>
										</Node>
										<Node score="-0.1529626771893951">
											<SimplePredicate field="PARCH" operator="greaterThan" value="1.0000000180025095E-35"/>
										</Node>
										<Node score="-0.07397180091872516">
											<SimplePredicate field="FARE" operator="greaterThan" value="23.125000000000004"/>
										</Node>
										<Node score="-0.1529626771893951">
											<SimplePredicate field="FARE" operator="greaterThan" value="13.208350000000001"/>
										</Node>
										<Node score="-0.0942596029387511">
											<SimplePredicate field="FARE" operator="greaterThan" value="7.910400000000001"/>
											<Node score="-0.0563574267175627">
												<SimplePredicate field="FARE" operator="greaterThan" value="8.229150000000002"/>
												<Node score="-0.14136072349244874">
													<SimplePredicate field="AGE" operator="lessOrEqual" value="26.500000000000004"/>
												</Node>
												<Node score="-0.11979944248452468">
													<SimplePredicate field="AGE" operator="greaterThan" value="31.500000000000004"/>
												</Node>
											</Node>
											<Node score="-0.05168267851664526">
												<SimplePredicate field="AGE" operator="greaterThan" value="30.250000000000004"/>
											</Node>
										</Node>
										<Node score="-0.07361555348942776">
											<SimplePredicate field="AGE" operator="lessOrEqual" value="32.25000000000001"/>
											<Node score="-0.1403106729551733">
												<SimplePredicate field="AGE" operator="lessOrEqual" value="23.250000000000004"/>
											</Node>
										</Node>
										<Node score="-0.13047178637554044">
											<SimplePredicate field="FARE" operator="greaterThan" value="7.745850000000001"/>
										</Node>
									</Node>
									<Node score="0.04273580823714537">
										<SimplePredicate field="AGE" operator="lessOrEqual" value="42.50000000000001"/>
										<Node score="0.10684149452985879">
											<SimplePredicate field="SIBSP" operator="greaterThan" value="1.0000000180025095E-35"/>
										</Node>
									</Node>
									<Node score="-0.008140140265138917">
										<SimplePredicate field="AGE" operator="greaterThan" value="47.50000000000001"/>
									</Node>
								</Node>
							</TreeModel>
						</Segment>
						<Segment id="3">
							<True/>
							<TreeModel functionName="regression" missingValueStrategy="none" noTrueChildStrategy="returnLastPrediction" splitCharacteristic="multiSplit">
								<MiningSchema>
									<MiningField name="PCLASS"/>
									<MiningField name="AGE"/>
									<MiningField name="PARCH"/>
									<MiningField name="FARE"/>
									<MiningField name="SEX"/>
									<MiningField name="CABIN"/>
									<MiningField name="EMBARKED"/>
								</MiningSchema>
								<Node score="0.030928249771535965">
									<True/>
									<Node score="0.18007644662444422">
										<SimplePredicate field="SEX=0" operator="greaterThan" value="1.0000000180025095E-35"/>
										<Node score="0.1475987656535033">
											<SimplePredicate field="PCLASS" operator="greaterThan" value="2.5000000000000004"/>
											<Node score="-0.11015297614319204">
												<SimplePredicate field="FARE" operator="greaterThan" value="24.80835"/>
											</Node>
											<Node score="-0.02345404405363104">
												<SimplePredicate field="AGE" operator="greaterThan" value="27.500000000000004"/>
											</Node>
											<Node score="0.019024200677791134">
												<SimplePredicate field="EMBARKED=2" operator="greaterThan" value="1.0000000180025095E-35"/>
												<Node score="0.07873198515990293">
													<SimplePredicate field="AGE" operator="greaterThan" value="20.250000000000004"/>
												</Node>
											</Node>
											<Node score="0.0924414363115969">
												<SimplePredicate field="FARE" operator="greaterThan" value="8.081250000000002"/>
											</Node>
										</Node>
										<Node score="0.192436397983143">
											<SimplePredicate field="FARE" operator="greaterThan" value="29.850000000000005"/>
										</Node>
										<Node score="0.1351257989531913">
											<SimplePredicate field="AGE" operator="greaterThan" value="37.50000000000001"/>
										</Node>
									</Node>
									<Node score="-0.14545053894435106">
										<SimplePredicate field="CABIN=186" operator="greaterThan" value="1.0000000180025095E-35"/>
										<Node score="0.038971753617941814">
											<SimplePredicate field="AGE" operator="lessOrEqual" value="9.500000000000002"/>
										</Node>
										<Node score="-0.03431816425648775">
											<SimplePredicate field="FARE" operator="greaterThan" value="55.67085000000001"/>
										</Node>
										<Node score="-0.09436579415928703">
											<SimplePredicate field="EMBARKED=0" operator="greaterThan" value="1.0000000180025095E-35"/>
											<Node score="-0.03636475658880368">
												<SimplePredicate field="FARE" operator="greaterThan" value="11.187500000000002"/>
											</Node>
										</Node>
										<Node score="-0.14545053894435103">
											<SimplePredicate field="PARCH" operator="greaterThan" value="1.0000000180025095E-35"/>
										</Node>
										<Node score="-0.06808137705319132">
											<SimplePredicate field="FARE" operator="greaterThan" value="23.125000000000004"/>
										</Node>
										<Node score="-0.14545053894435103">
											<SimplePredicate field="FARE" operator="greaterThan" value="13.208350000000001"/>
										</Node>
										<Node score="-0.08741187460949462">
											<SimplePredicate field="FARE" operator="greaterThan" value="7.910400000000001"/>
											<Node score="-0.05155525022840371">
												<SimplePredicate field="FARE" operator="greaterThan" value="8.229150000000002"/>
												<Node score="-0.13370565012759772">
													<SimplePredicate field="AGE" operator="lessOrEqual" value="26.500000000000004"/>
												</Node>
												<Node score="-0.1122504956877451">
													<SimplePredicate field="AGE" operator="greaterThan" value="31.500000000000004"/>
												</Node>
											</Node>
											<Node score="-0.047206242069537656">
												<SimplePredicate field="AGE" operator="greaterThan" value="30.250000000000004"/>
											</Node>
										</Node>
										<Node score="-0.14934494001210435">
											<SimplePredicate field="FARE" operator="greaterThan" value="7.8646"/>
										</Node>
										<Node score="-0.03004774919509645">
											<SimplePredicate field="AGE" operator="lessOrEqual" value="32.25000000000001"/>
											<Node score="-0.12954463873229247">
												<SimplePredicate field="AGE" operator="lessOrEqual" value="23.250000000000004"/>
											</Node>
										</Node>
										<Node score="-0.10177657623706893">
											<SimplePredicate field="FARE" operator="greaterThan" value="7.745850000000001"/>
										</Node>
									</Node>
									<Node score="0.09277646447469129">
										<SimplePredicate field="AGE" operator="lessOrEqual" value="36.25000000000001"/>
										<Node score="0.050632261536127814">
											<SimplePredicate field="FARE" operator="greaterThan" value="49.752100000000006"/>
										</Node>
									</Node>
									<Node score="-0.0639914117919135">
										<SimplePredicate field="AGE" operator="lessOrEqual" value="47.50000000000001"/>
									</Node>
									<Node score="-0.05097763809944044">
										<SimplePredicate field="AGE" operator="greaterThan" value="50.50000000000001"/>
									</Node>
								</Node>
							</TreeModel>
						</Segment>
						<Segment id="4">
							<True/>
							<TreeModel functionName="regression" missingValueStrategy="none" noTrueChildStrategy="returnLastPrediction" splitCharacteristic="multiSplit">
								<MiningSchema>
									<MiningField name="PCLASS"/>
									<MiningField name="AGE"/>
									<MiningField name="SIBSP"/>
									<MiningField name="PARCH"/>
									<MiningField name="FARE"/>
									<MiningField name="SEX"/>
									<MiningField name="CABIN"/>
									<MiningField name="EMBARKED"/>
								</MiningSchema>
								<Node score="-0.07958958780603104">
									<True/>
									<Node score="0.1826112711202603">
										<SimplePredicate field="SEX=0" operator="greaterThan" value="1.0000000180025095E-35"/>
										<Node score="0.13176785797777232">
											<SimplePredicate field="PCLASS" operator="greaterThan" value="2.5000000000000004"/>
											<Node score="-0.10339686560884481">
												<SimplePredicate field="FARE" operator="greaterThan" value="24.80835"/>
											</Node>
											<Node score="-0.02122770903141455">
												<SimplePredicate field="AGE" operator="greaterThan" value="27.500000000000004"/>
											</Node>
											<Node score="0.01706550649915121">
												<SimplePredicate field="EMBARKED=2" operator="greaterThan" value="1.0000000180025095E-35"/>
												<Node score="0.06991402092966136">
													<SimplePredicate field="AGE" operator="greaterThan" value="20.250000000000004"/>
												</Node>
											</Node>
											<Node score="0.08220011152490908">
												<SimplePredicate field="FARE" operator="greaterThan" value="8.081250000000002"/>
											</Node>
										</Node>
										<Node score="0.17477630500387603">
											<SimplePredicate field="FARE" operator="greaterThan" value="29.850000000000005"/>
										</Node>
										<Node score="0.12093820001598632">
											<SimplePredicate field="AGE" operator="greaterThan" value="37.50000000000001"/>
										</Node>
										<Node score="0.1454842314143034">
											<SimplePredicate field="AGE" operator="lessOrEqual" value="27.500000000000004"/>
										</Node>
									</Node>
									<Node score="-0.13929802101198638">
										<SimplePredicate field="CABIN=186" operator="greaterThan" value="1.0000000180025095E-35"/>
										<Node score="0.034817625439018854">
											<SimplePredicate field="AGE" operator="lessOrEqual" value="9.500000000000002"/>
										</Node>
										<Node score="-0.03119803168092001">
											<SimplePredicate field="FARE" operator="greaterThan" value="55.67085000000001"/>
										</Node>
										<Node score="-0.08553765963508993">
											<SimplePredicate field="EMBARKED=0" operator="greaterThan" value="1.0000000180025095E-35"/>
											<Node score="-0.027333637333890493">
												<SimplePredicate field="AGE" operator="lessOrEqual" value="30.250000000000004"/>
											</Node>
										</Node>
										<Node score="-0.13929802101198638">
											<SimplePredicate field="PARCH" operator="greaterThan" value="1.0000000180025095E-35"/>
										</Node>
										<Node score="-0.06269361140341705">
											<SimplePredicate field="FARE" operator="greaterThan" value="23.125000000000004"/>
										</Node>
										<Node score="-0.13929802101198638">
											<SimplePredicate field="FARE" operator="greaterThan" value="13.208350000000001"/>
										</Node>
										<Node score="-0.11819882297199201">
											<SimplePredicate field="FARE" operator="greaterThan" value="7.910400000000001"/>
											<Node score="-0.04700178456174771">
												<SimplePredicate field="AGE" operator="lessOrEqual" value="19.500000000000004"/>
											</Node>
											<Node score="-0.12895130552885614">
												<SimplePredicate field="AGE" operator="lessOrEqual" value="26.500000000000004"/>
											</Node>
											<Node score="-0.05202167091467658">
												<SimplePredicate field="AGE" operator="greaterThan" value="38.50000000000001"/>
											</Node>
											<Node score="-0.055548263854081695">
												<SimplePredicate field="AGE" operator="lessOrEqual" value="32.25000000000001"/>
											</Node>
										</Node>
										<Node score="-0.1425087183465143">
											<SimplePredicate field="FARE" operator="greaterThan" value="7.8646"/>
										</Node>
										<Node score="-0.02731038671154523">
											<SimplePredicate field="AGE" operator="lessOrEqual" value="32.25000000000001"/>
											<Node score="-0.12299083057830174">
												<SimplePredicate field="AGE" operator="lessOrEqual" value="23.250000000000004"/>
											</Node>
										</Node>
										<Node score="-0.09538186498865973">
											<SimplePredicate field="FARE" operator="greaterThan" value="7.745850000000001"/>
										</Node>
									</Node>
									<Node score="0.03331795745481067">
										<SimplePredicate field="AGE" operator="lessOrEqual" value="42.50000000000001"/>
										<Node score="0.09040868225013703">
											<SimplePredicate field="SIBSP" operator="greaterThan" value="1.0000000180025095E-35"/>
										</Node>
									</Node>
									<Node score="-0.004683732552053506">
										<SimplePredicate field="AGE" operator="greaterThan" value="47.50000000000001"/>
									</Node>
								</Node>
							</TreeModel>
						</Segment>
						<Segment id="5">
							<True/>
							<TreeModel functionName="regression" missingValueStrategy="none" noTrueChildStrategy="returnLastPrediction" splitCharacteristic="multiSplit">
								<MiningSchema>
									<MiningField name="PCLASS"/>
									<MiningField name="AGE"/>
									<MiningField name="FARE"/>
									<MiningField name="SEX"/>
									<MiningField name="CABIN"/>
									<MiningField name="EMBARKED"/>
								</MiningSchema>
								<Node score="-0.07348564394784605">
									<True/>
									<Node score="0.1688227906435999">
										<SimplePredicate field="SEX=0" operator="greaterThan" value="1.0000000180025095E-35"/>
										<Node score="0.060787413064858034">
											<SimplePredicate field="PCLASS" operator="greaterThan" value="2.5000000000000004"/>
											<Node score="-0.08736303184984985">
												<SimplePredicate field="FARE" operator="greaterThan" value="23.725000000000005"/>
											</Node>
											<Node score="0.04056410627794079">
												<SimplePredicate field="AGE" operator="greaterThan" value="16.500000000000004"/>
												<Node score="-0.013476544778194495">
													<SimplePredicate field="AGE" operator="greaterThan" value="27.500000000000004"/>
												</Node>
											</Node>
											<Node score="0.12336555930298619">
												<SimplePredicate field="EMBARKED=1" operator="greaterThan" value="1.0000000180025095E-35"/>
											</Node>
										</Node>
										<Node score="0.1685120761489727">
											<SimplePredicate field="FARE" operator="greaterThan" value="29.850000000000005"/>
											<Node score="0.13478266604090605">
												<SimplePredicate field="FARE" operator="greaterThan" value="141.07705"/>
											</Node>
										</Node>
										<Node score="0.10919247966320325">
											<SimplePredicate field="AGE" operator="greaterThan" value="37.50000000000001"/>
										</Node>
										<Node score="0.13271415128685995">
											<SimplePredicate field="AGE" operator="lessOrEqual" value="27.500000000000004"/>
										</Node>
									</Node>
									<Node score="-0.04220085128172805">
										<SimplePredicate field="CABIN=186" operator="greaterThan" value="1.0000000180025095E-35"/>
										<Node score="0.02462726243435368">
											<SimplePredicate field="AGE" operator="lessOrEqual" value="13.500000000000002"/>
										</Node>
										<Node score="-0.02834976444714026">
											<SimplePredicate field="FARE" operator="greaterThan" value="55.67085000000001"/>
										</Node>
										<Node score="-0.13439615016444212">
											<SimplePredicate field="PCLASS" operator="greaterThan" value="1.5000000000000002"/>
											<Node score="-0.13961947947612735">
												<SimplePredicate field="AGE" operator="greaterThan" value="32.25000000000001"/>
												<Node score="-0.0785449327791431">
													<SimplePredicate field="AGE" operator="greaterThan" value="38.50000000000001"/>
													<Node score="-0.12449182462218007">
														<SimplePredicate field="AGE" operator="greaterThan" value="45.25000000000001"/>
													</Node>
												</Node>
											</Node>
											<Node score="-0.04522050448139922">
												<SimplePredicate field="EMBARKED=0" operator="greaterThan" value="1.0000000180025095E-35"/>
											</Node>
											<Node score="-0.026009775490154898">
												<SimplePredicate field="AGE" operator="greaterThan" value="26.500000000000004"/>
												<Node score="-0.10180054357498725">
													<SimplePredicate field="FARE" operator="greaterThan" value="10.481250000000001"/>
												</Node>
											</Node>
											<Node score="-0.08883309686900848">
												<SimplePredicate field="FARE" operator="greaterThan" value="8.229150000000002"/>
												<Node score="-0.11478987459813211">
													<SimplePredicate field="AGE" operator="greaterThan" value="15.500000000000002"/>
													<Node score="-0.13642990010896316">
														<SimplePredicate field="PCLASS" operator="greaterThan" value="2.5000000000000004"/>
													</Node>
												</Node>
											</Node>
											<Node score="-0.06474426543314818">
												<SimplePredicate field="FARE" operator="greaterThan" value="7.910400000000001"/>
											</Node>
											<Node score="-0.13681565946519356">
												<SimplePredicate field="FARE" operator="greaterThan" value="7.797900000000001"/>
											</Node>
											<Node score="-0.05820016194561195">
												<SimplePredicate field="FARE" operator="greaterThan" value="7.745850000000001"/>
											</Node>
											<Node score="-0.09388378967614952">
												<SimplePredicate field="AGE" operator="greaterThan" value="17.500000000000004"/>
											</Node>
										</Node>
									</Node>
									<Node score="0.0762079698060815">
										<SimplePredicate field="AGE" operator="lessOrEqual" value="42.50000000000001"/>
										<Node score="0.02492777569672351">
											<SimplePredicate field="AGE" operator="greaterThan" value="28.250000000000004"/>
										</Node>
									</Node>
									<Node score="-0.0042208690646884164">
										<SimplePredicate field="AGE" operator="greaterThan" value="47.50000000000001"/>
									</Node>
								</Node>
							</TreeModel>
						</Segment>
						<Segment id="6">
							<True/>
							<TreeModel functionName="regression" missingValueStrategy="none" noTrueChildStrategy="returnLastPrediction" splitCharacteristic="multiSplit">
								<MiningSchema>
									<MiningField name="PCLASS"/>
									<MiningField name="AGE"/>
									<MiningField name="SIBSP"/>
									<MiningField name="FARE"/>
									<MiningField name="SEX"/>
									<MiningField name="CABIN"/>
									<MiningField name="EMBARKED"/>
								</MiningSchema>
								<Node score="-0.06789627148924303">
									<True/>
									<Node score="0.15813176470859705">
										<SimplePredicate field="SEX=0" operator="greaterThan" value="1.0000000180025095E-35"/>
										<Node score="0.049223946415542195">
											<SimplePredicate field="PCLASS" operator="greaterThan" value="2.5000000000000004"/>
											<Node score="-0.09224840434953335">
												<SimplePredicate field="FARE" operator="greaterThan" value="24.80835"/>
											</Node>
											<Node score="0.06126140595130789">
												<SimplePredicate field="AGE" operator="greaterThan" value="7.500000000000001"/>
												<Node score="0.03201793549508115">
													<SimplePredicate field="FARE" operator="greaterThan" value="8.585450000000002"/>
													<Node score="-0.04531973631520921">
														<SimplePredicate field="AGE" operator="lessOrEqual" value="26.500000000000004"/>
													</Node>
												</Node>
											</Node>
											<Node score="0.12468959621308295">
												<SimplePredicate field="FARE" operator="greaterThan" value="10.508350000000002"/>
											</Node>
										</Node>
										<Node score="0.15788728367932126">
											<SimplePredicate field="FARE" operator="greaterThan" value="29.850000000000005"/>
											<Node score="0.12450413004591238">
												<SimplePredicate field="FARE" operator="greaterThan" value="141.07705"/>
											</Node>
										</Node>
										<Node score="0.09921090006846693">
											<SimplePredicate field="AGE" operator="greaterThan" value="37.50000000000001"/>
										</Node>
										<Node score="0.12208736854128899">
											<SimplePredicate field="AGE" operator="lessOrEqual" value="27.500000000000004"/>
										</Node>
									</Node>
									<Node score="-0.1309213504795449">
										<SimplePredicate field="CABIN=186" operator="greaterThan" value="1.0000000180025095E-35"/>
										<Node score="0.022064663938669096">
											<SimplePredicate field="AGE" operator="lessOrEqual" value="13.500000000000002"/>
										</Node>
										<Node score="-0.02574934765212654">
											<SimplePredicate field="FARE" operator="greaterThan" value="55.67085000000001"/>
										</Node>
										<Node score="-0.12297577462022746">
											<SimplePredicate field="AGE" operator="greaterThan" value="45.25000000000001"/>
										</Node>
										<Node score="-0.07793657164761775">
											<SimplePredicate field="EMBARKED=0" operator="greaterThan" value="1.0000000180025095E-35"/>
											<Node score="-0.026078241309349322">
												<SimplePredicate field="FARE" operator="greaterThan" value="13.645850000000001"/>
											</Node>
										</Node>
										<Node score="-0.013758885469454227">
											<SimplePredicate field="AGE" operator="greaterThan" value="26.500000000000004"/>
											<Node score="-0.11524503253351746">
												<SimplePredicate field="SIBSP" operator="greaterThan" value="1.0000000180025095E-35"/>
											</Node>
											<Node score="-0.03571993222873533">
												<SimplePredicate field="AGE" operator="greaterThan" value="32.25000000000001"/>
												<Node score="-0.11416527345373786">
													<SimplePredicate field="AGE" operator="lessOrEqual" value="38.50000000000001"/>
												</Node>
											</Node>
											<Node score="-0.06398164411318356">
												<SimplePredicate field="FARE" operator="greaterThan" value="7.977100000000001"/>
											</Node>
										</Node>
										<Node score="-0.06918022036205798">
											<SimplePredicate field="AGE" operator="greaterThan" value="21.500000000000004"/>
											<Node score="-0.13357476528842743">
												<SimplePredicate field="FARE" operator="greaterThan" value="7.883350000000001"/>
											</Node>
										</Node>
										<Node score="-0.09166128718756303">
											<SimplePredicate field="FARE" operator="greaterThan" value="7.745850000000001"/>
											<Node score="-0.09581151797189902">
												<SimplePredicate field="FARE" operator="greaterThan" value="8.229150000000002"/>
											</Node>
											<Node score="-0.03329492778401288">
												<SimplePredicate field="AGE" operator="lessOrEqual" value="20.250000000000004"/>
											</Node>
										</Node>
									</Node>
									<Node score="0.025167725806975738">
										<SimplePredicate field="AGE" operator="lessOrEqual" value="42.50000000000001"/>
										<Node score="0.0748454894442815">
											<SimplePredicate field="SIBSP" operator="greaterThan" value="1.0000000180025095E-35"/>
										</Node>
									</Node>
									<Node score="-0.003803296666217228">
										<SimplePredicate field="AGE" operator="greaterThan" value="47.50000000000001"/>
									</Node>
								</Node>
							</TreeModel>
						</Segment>
						<Segment id="7">
							<True/>
							<TreeModel functionName="regression" missingValueStrategy="none" noTrueChildStrategy="returnLastPrediction" splitCharacteristic="multiSplit">
								<MiningSchema>
									<MiningField name="PCLASS"/>
									<MiningField name="AGE"/>
									<MiningField name="SIBSP"/>
									<MiningField name="FARE"/>
									<MiningField name="SEX"/>
									<MiningField name="EMBARKED"/>
								</MiningSchema>
								<Node score="-0.020137203479102514">
									<True/>
									<Node score="0.12971982475372096">
										<SimplePredicate field="SEX=0" operator="greaterThan" value="1.0000000180025095E-35"/>
										<Node score="0.09459872631368307">
											<SimplePredicate field="PCLASS" operator="greaterThan" value="2.5000000000000004"/>
											<Node score="-0.08700786415209771">
												<SimplePredicate field="FARE" operator="greaterThan" value="24.80835"/>
											</Node>
											<Node score="-0.021168407118851634">
												<SimplePredicate field="AGE" operator="greaterThan" value="27.500000000000004"/>
											</Node>
											<Node score="-0.01612704317340058">
												<SimplePredicate field="FARE" operator="greaterThan" value="7.910400000000001"/>
												<Node score="0.09730334238600954">
													<SimplePredicate field="FARE" operator="greaterThan" value="15.372900000000001"/>
												</Node>
											</Node>
										</Node>
										<Node score="0.14943262088628262">
											<SimplePredicate field="FARE" operator="greaterThan" value="29.850000000000005"/>
											<Node score="0.11571746592478127">
												<SimplePredicate field="FARE" operator="greaterThan" value="141.07705"/>
											</Node>
										</Node>
										<Node score="0.09055056193584084">
											<SimplePredicate field="AGE" operator="greaterThan" value="37.50000000000001"/>
										</Node>
									</Node>
									<Node score="0.08735241042637017">
										<SimplePredicate field="AGE" operator="lessOrEqual" value="6.500000000000001"/>
									</Node>
									<Node score="-0.10241382753652935">
										<SimplePredicate field="PCLASS" operator="greaterThan" value="1.5000000000000002"/>
										<Node score="-0.13106801635292029">
											<SimplePredicate field="AGE" operator="greaterThan" value="32.25000000000001"/>
											<Node score="-0.1331774440146308">
												<SimplePredicate field="FARE" operator="greaterThan" value="13.208350000000001"/>
											</Node>
											<Node score="-0.03986953334782918">
												<SimplePredicate field="FARE" operator="greaterThan" value="7.910400000000001"/>
												<Node score="-0.09200151319512975">
													<SimplePredicate field="AGE" operator="lessOrEqual" value="39.50000000000001"/>
												</Node>
											</Node>
										</Node>
										<Node score="0.025041197750083368">
											<SimplePredicate field="AGE" operator="greaterThan" value="30.250000000000004"/>
										</Node>
										<Node score="-0.07033253421094142">
											<SimplePredicate field="EMBARKED=0" operator="greaterThan" value="1.0000000180025095E-35"/>
											<Node score="0.013564276354489839">
												<SimplePredicate field="FARE" operator="greaterThan" value="7.883350000000001"/>
											</Node>
										</Node>
										<Node score="-0.12795027189932023">
											<SimplePredicate field="SIBSP" operator="greaterThan" value="1.5000000000000002"/>
										</Node>
										<Node score="-0.02698990133143779">
											<SimplePredicate field="FARE" operator="greaterThan" value="20.387500000000003"/>
										</Node>
										<Node score="-0.05906660668903157">
											<SimplePredicate field="AGE" operator="greaterThan" value="26.500000000000004"/>
										</Node>
										<Node score="-0.1080208373850879">
											<SimplePredicate field="AGE" operator="lessOrEqual" value="20.250000000000004"/>
											<Node score="-0.04231532774765024">
												<SimplePredicate field="FARE" operator="greaterThan" value="7.977100000000001"/>
											</Node>
										</Node>
										<Node score="-0.13205125258487774">
											<SimplePredicate field="FARE" operator="greaterThan" value="7.797900000000001"/>
											<Node score="-0.09600430112147335">
												<SimplePredicate field="FARE" operator="greaterThan" value="8.081250000000002"/>
											</Node>
										</Node>
										<Node score="-0.03334953540499923">
											<SimplePredicate field="FARE" operator="greaterThan" value="7.745850000000001"/>
										</Node>
									</Node>
									<Node score="0.08672135269447262">
										<SimplePredicate field="AGE" operator="lessOrEqual" value="52.50000000000001"/>
										<Node score="-0.04587653792373169">
											<SimplePredicate field="FARE" operator="greaterThan" value="33.25000000000001"/>
											<Node score="0.02062106221093579">
												<SimplePredicate field="SIBSP" operator="greaterThan" value="1.0000000180025095E-35"/>
											</Node>
										</Node>
									</Node>
									<Node score="-0.10892698299926898">
										<SimplePredicate field="AGE" operator="lessOrEqual" value="72.50000000000001"/>
									</Node>
								</Node>
							</TreeModel>
						</Segment>
						<Segment id="8">
							<True/>
							<TreeModel functionName="regression" missingValueStrategy="none" noTrueChildStrategy="returnLastPrediction" splitCharacteristic="multiSplit">
								<MiningSchema>
									<MiningField name="PCLASS"/>
									<MiningField name="AGE"/>
									<MiningField name="FARE"/>
									<MiningField name="SEX"/>
									<MiningField name="CABIN"/>
									<MiningField name="EMBARKED"/>
								</MiningSchema>
								<Node score="0.08815647518953652">
									<True/>
									<Node score="0.1435914246673495">
										<SimplePredicate field="SEX=0" operator="greaterThan" value="1.0000000180025095E-35"/>
										<Node score="0.09027893363257528">
											<SimplePredicate field="PCLASS" operator="greaterThan" value="2.5000000000000004"/>
											<Node score="-0.06873503165706471">
												<SimplePredicate field="FARE" operator="greaterThan" value="23.125000000000004"/>
											</Node>
											<Node score="0.08916806543701135">
												<SimplePredicate field="FARE" operator="greaterThan" value="15.372900000000001"/>
											</Node>
											<Node score="-0.04655252671909343">
												<SimplePredicate field="FARE" operator="greaterThan" value="7.883350000000001"/>
												<Node score="0.0223681795841697">
													<SimplePredicate field="AGE" operator="lessOrEqual" value="22.500000000000004"/>
												</Node>
											</Node>
											<Node score="0.046832780574761264">
												<SimplePredicate field="AGE" operator="greaterThan" value="13.500000000000002"/>
											</Node>
										</Node>
										<Node score="0.14257119971608764">
											<SimplePredicate field="FARE" operator="greaterThan" value="29.850000000000005"/>
											<Node score="0.10803745519362258">
												<SimplePredicate field="FARE" operator="greaterThan" value="141.07705"/>
											</Node>
										</Node>
										<Node score="0.08291101512147524">
											<SimplePredicate field="AGE" operator="greaterThan" value="37.50000000000001"/>
										</Node>
										<Node score="0.10392973848466354">
											<SimplePredicate field="AGE" operator="lessOrEqual" value="27.500000000000004"/>
										</Node>
									</Node>
									<Node score="-0.09244496185071194">
										<SimplePredicate field="CABIN=186" operator="greaterThan" value="1.0000000180025095E-35"/>
										<Node score="0.01749507106627175">
											<SimplePredicate field="AGE" operator="lessOrEqual" value="13.500000000000002"/>
										</Node>
										<Node score="-0.019228926860044886">
											<SimplePredicate field="FARE" operator="greaterThan" value="55.67085000000001"/>
										</Node>
										<Node score="-0.11416956070982986">
											<SimplePredicate field="AGE" operator="greaterThan" value="45.25000000000001"/>
										</Node>
										<Node score="-0.11698144909055155">
											<SimplePredicate field="FARE" operator="greaterThan" value="26.775000000000002"/>
										</Node>
										<Node score="-0.07055296292079812">
											<SimplePredicate field="EMBARKED=0" operator="greaterThan" value="1.0000000180025095E-35"/>
											<Node score="0.021239298583165415">
												<SimplePredicate field="FARE" operator="greaterThan" value="7.883350000000001"/>
											</Node>
										</Node>
										<Node score="-0.019899220718184545">
											<SimplePredicate field="FARE" operator="greaterThan" value="23.125000000000004"/>
										</Node>
										<Node score="-0.1255001780586595">
											<SimplePredicate field="FARE" operator="greaterThan" value="13.208350000000001"/>
										</Node>
										<Node score="-0.038209470165174404">
											<SimplePredicate field="AGE" operator="greaterThan" value="26.500000000000004"/>
											<Node score="-0.12777523657454073">
												<SimplePredicate field="AGE" operator="greaterThan" value="32.25000000000001"/>
												<Node score="-0.04079684068202814">
													<SimplePredicate field="AGE" operator="greaterThan" value="37.50000000000001"/>
												</Node>
											</Node>
										</Node>
										<Node score="-0.06614707566628865">
											<SimplePredicate field="AGE" operator="lessOrEqual" value="20.250000000000004"/>
										</Node>
										<Node score="-0.12810307554248954">
											<SimplePredicate field="FARE" operator="greaterThan" value="7.797900000000001"/>
											<Node score="-0.07754680796343832">
												<SimplePredicate field="FARE" operator="greaterThan" value="8.081250000000002"/>
											</Node>
										</Node>
										<Node score="-0.03326365775948146">
											<SimplePredicate field="FARE" operator="greaterThan" value="7.735400000000001"/>
										</Node>
									</Node>
									<Node score="0.015816725005046075">
										<SimplePredicate field="AGE" operator="greaterThan" value="17.500000000000004"/>
										<Node score="0.02327845144331806">
											<SimplePredicate field="EMBARKED=0" operator="greaterThan" value="1.0000000180025095E-35"/>
										</Node>
										<Node score="-0.06067960795153598">
											<SimplePredicate field="FARE" operator="greaterThan" value="31.85415"/>
										</Node>
									</Node>
								</Node>
							</TreeModel>
						</Segment>
						<Segment id="9">
							<True/>
							<TreeModel functionName="regression" missingValueStrategy="none" noTrueChildStrategy="returnLastPrediction" splitCharacteristic="multiSplit">
								<MiningSchema>
									<MiningField name="PCLASS"/>
									<MiningField name="AGE"/>
									<MiningField name="FARE"/>
									<MiningField name="SEX"/>
									<MiningField name="CABIN"/>
									<MiningField name="EMBARKED"/>
								</MiningSchema>
								<Node score="0.07805107711315802">
									<True/>
									<Node score="0.11521220608405686">
										<SimplePredicate field="SEX=0" operator="greaterThan" value="1.0000000180025095E-35"/>
										<Node score="0.0736993313663287">
											<SimplePredicate field="PCLASS" operator="greaterThan" value="2.5000000000000004"/>
											<Node score="-0.07822221532582507">
												<SimplePredicate field="FARE" operator="greaterThan" value="24.80835"/>
											</Node>
											<Node score="-0.02014495932276125">
												<SimplePredicate field="AGE" operator="greaterThan" value="27.500000000000004"/>
											</Node>
											<Node score="-0.0031689594146971896">
												<SimplePredicate field="EMBARKED=2" operator="greaterThan" value="1.0000000180025095E-35"/>
												<Node score="0.05018656741071312">
													<SimplePredicate field="AGE" operator="greaterThan" value="20.250000000000004"/>
												</Node>
											</Node>
										</Node>
										<Node score="0.13691458481251675">
											<SimplePredicate field="FARE" operator="greaterThan" value="29.850000000000005"/>
											<Node score="0.10119688195769042">
												<SimplePredicate field="FARE" operator="greaterThan" value="141.07705"/>
											</Node>
										</Node>
										<Node score="0.07608237071633696">
											<SimplePredicate field="AGE" operator="greaterThan" value="37.50000000000001"/>
										</Node>
									</Node>
									<Node score="-0.12234837307885978">
										<SimplePredicate field="CABIN=186" operator="greaterThan" value="1.0000000180025095E-35"/>
										<Node score="0.021181341040735602">
											<SimplePredicate field="AGE" operator="lessOrEqual" value="9.500000000000002"/>
										</Node>
										<Node score="-0.017428521054494807">
											<SimplePredicate field="FARE" operator="greaterThan" value="55.67085000000001"/>
										</Node>
										<Node score="-0.11419575671477525">
											<SimplePredicate field="FARE" operator="greaterThan" value="26.775000000000002"/>
										</Node>
										<Node score="-0.06796452351748027">
											<SimplePredicate field="EMBARKED=0" operator="greaterThan" value="1.0000000180025095E-35"/>
											<Node score="0.022709220709275273">
												<SimplePredicate field="FARE" operator="greaterThan" value="7.883350000000001"/>
											</Node>
										</Node>
										<Node score="-0.03164945053108108">
											<SimplePredicate field="FARE" operator="greaterThan" value="25.964600000000004"/>
										</Node>
										<Node score="-0.11067508787342191">
											<SimplePredicate field="FARE" operator="greaterThan" value="13.208350000000001"/>
										</Node>
										<Node score="-0.0037699634702303532">
											<SimplePredicate field="FARE" operator="greaterThan" value="7.910400000000001"/>
											<Node score="-0.019375975208324358">
												<SimplePredicate field="FARE" operator="greaterThan" value="8.229150000000002"/>
												<Node score="-0.10857208291682943">
													<SimplePredicate field="AGE" operator="lessOrEqual" value="26.500000000000004"/>
												</Node>
												<Node score="-0.08337588346088806">
													<SimplePredicate field="AGE" operator="greaterThan" value="31.500000000000004"/>
												</Node>
											</Node>
											<Node score="-0.05576174750409657">
												<SimplePredicate field="AGE" operator="greaterThan" value="20.250000000000004"/>
											</Node>
										</Node>
										<Node score="-0.12527824978134747">
											<SimplePredicate field="FARE" operator="greaterThan" value="7.8646"/>
										</Node>
										<Node score="-0.004466114633336155">
											<SimplePredicate field="AGE" operator="lessOrEqual" value="32.25000000000001"/>
											<Node score="-0.10337382719182774">
												<SimplePredicate field="AGE" operator="lessOrEqual" value="23.250000000000004"/>
											</Node>
										</Node>
										<Node score="-0.07090061989628757">
											<SimplePredicate field="FARE" operator="greaterThan" value="7.745850000000001"/>
										</Node>
									</Node>
									<Node score="-0.05033839680528401">
										<SimplePredicate field="AGE" operator="greaterThan" value="17.500000000000004"/>
										<Node score="-0.032607086099215705">
											<SimplePredicate field="AGE" operator="lessOrEqual" value="49.50000000000001"/>
											<Node score="0.005881511825196053">
												<SimplePredicate field="AGE" operator="greaterThan" value="31.500000000000004"/>
												<Node score="0.05026427159892354">
													<SimplePredicate field="FARE" operator="greaterThan" value="39.90625000000001"/>
												</Node>
											</Node>
										</Node>
									</Node>
								</Node>
							</TreeModel>
						</Segment>
						<Segment id="10">
							<True/>
							<TreeModel functionName="regression" missingValueStrategy="none" noTrueChildStrategy="returnLastPrediction" splitCharacteristic="multiSplit">
								<MiningSchema>
									<MiningField name="PCLASS"/>
									<MiningField name="AGE"/>
									<MiningField name="SIBSP"/>
									<MiningField name="PARCH"/>
									<MiningField name="FARE"/>
									<MiningField name="SEX"/>
									<MiningField name="EMBARKED"/>
								</MiningSchema>
								<Node score="-0.09465486497713102">
									<True/>
									<Node score="0.06272364934413725">
										<SimplePredicate field="SEX=0" operator="greaterThan" value="1.0000000180025095E-35"/>
										<Node score="0.07997007859902366">
											<SimplePredicate field="PCLASS" operator="greaterThan" value="2.5000000000000004"/>
											<Node score="-0.06065130294132742">
												<SimplePredicate field="FARE" operator="greaterThan" value="23.125000000000004"/>
											</Node>
											<Node score="0.08474814957379465">
												<SimplePredicate field="AGE" operator="lessOrEqual" value="16.500000000000004"/>
											</Node>
											<Node score="0.07633460847360288">
												<SimplePredicate field="FARE" operator="greaterThan" value="15.372900000000001"/>
											</Node>
											<Node score="-0.05975343911522468">
												<SimplePredicate field="FARE" operator="greaterThan" value="7.977100000000001"/>
											</Node>
											<Node score="0.01863911824383335">
												<SimplePredicate field="AGE" operator="greaterThan" value="17.500000000000004"/>
											</Node>
										</Node>
										<Node score="0.1321911676739341">
											<SimplePredicate field="FARE" operator="greaterThan" value="29.850000000000005"/>
											<Node score="0.09500546098720425">
												<SimplePredicate field="FARE" operator="greaterThan" value="141.07705"/>
											</Node>
										</Node>
										<Node score="0.12310686687370571">
											<SimplePredicate field="PARCH" operator="greaterThan" value="1.0000000180025095E-35"/>
										</Node>
										<Node score="0.10152548468528454">
											<SimplePredicate field="AGE" operator="lessOrEqual" value="35.50000000000001"/>
										</Node>
									</Node>
									<Node score="0.07110331987476413">
										<SimplePredicate field="AGE" operator="lessOrEqual" value="6.500000000000001"/>
									</Node>
									<Node score="0.09542035595420068">
										<SimplePredicate field="FARE" operator="greaterThan" value="26.266650000000002"/>
										<Node score="-0.1270897071135619">
											<SimplePredicate field="SIBSP" operator="greaterThan" value="1.5000000000000002"/>
										</Node>
										<Node score="-0.07719703320492673">
											<SimplePredicate field="AGE" operator="greaterThan" value="52.50000000000001"/>
										</Node>
										<Node score="-0.05991482640615336">
											<SimplePredicate field="FARE" operator="greaterThan" value="30.597900000000003"/>
											<Node score="0.08394764445821443">
												<SimplePredicate field="FARE" operator="greaterThan" value="52.27710000000001"/>
												<Node score="-0.03372372239241911">
													<SimplePredicate field="FARE" operator="greaterThan" value="77.00835000000002"/>
												</Node>
											</Node>
										</Node>
									</Node>
									<Node score="-0.04694178688354642">
										<SimplePredicate field="AGE" operator="lessOrEqual" value="32.25000000000001"/>
										<Node score="0.005203178642184802">
											<SimplePredicate field="EMBARKED=0" operator="greaterThan" value="1.0000000180025095E-35"/>
										</Node>
										<Node score="-0.019916881947445064">
											<SimplePredicate field="AGE" operator="greaterThan" value="28.250000000000004"/>
										</Node>
										<Node score="-0.041475939253225395">
											<SimplePredicate field="FARE" operator="greaterThan" value="8.925000000000002"/>
											<Node score="-0.12631504139680447">
												<SimplePredicate field="AGE" operator="greaterThan" value="20.250000000000004"/>
											</Node>
										</Node>
										<Node score="-0.024202146343282622">
											<SimplePredicate field="FARE" operator="greaterThan" value="7.910400000000001"/>
										</Node>
										<Node score="-0.12440849836603313">
											<SimplePredicate field="FARE" operator="greaterThan" value="7.797900000000001"/>
										</Node>
									</Node>
									<Node score="-0.10996545621532094">
										<SimplePredicate field="FARE" operator="greaterThan" value="7.910400000000001"/>
										<Node score="-0.11252268511186786">
											<SimplePredicate field="FARE" operator="greaterThan" value="15.372900000000001"/>
										</Node>
										<Node score="-0.0015281736785782958">
											<SimplePredicate field="FARE" operator="greaterThan" value="12.937500000000002"/>
										</Node>
										<Node score="-0.020999968774303025">
											<SimplePredicate field="AGE" operator="greaterThan" value="36.25000000000001"/>
										</Node>
									</Node>
									<Node score="-0.1309341852632465">
										<SimplePredicate field="AGE" operator="lessOrEqual" value="1.0E300"/>
									</Node>
								</Node>
							</TreeModel>
						</Segment>
						<Segment id="11">
							<True/>
							<TreeModel functionName="regression" missingValueStrategy="none" noTrueChildStrategy="returnLastPrediction" splitCharacteristic="multiSplit">
								<MiningSchema>
									<MiningField name="PCLASS"/>
									<MiningField name="AGE"/>
									<MiningField name="SIBSP"/>
									<MiningField name="FARE"/>
									<MiningField name="SEX"/>
									<MiningField name="CABIN"/>
									<MiningField name="EMBARKED"/>
								</MiningSchema>
								<Node score="0.03084754483021253">
									<True/>
									<Node score="0.13050023263841024">
										<SimplePredicate field="SEX=0" operator="greaterThan" value="1.0000000180025095E-35"/>
										<Node score="0.019735429875268804">
											<SimplePredicate field="PCLASS" operator="greaterThan" value="2.5000000000000004"/>
											<Node score="-0.0703048059598121">
												<SimplePredicate field="FARE" operator="greaterThan" value="24.80835"/>
											</Node>
											<Node score="0.05794629965045657">
												<SimplePredicate field="AGE" operator="greaterThan" value="7.500000000000001"/>
												<Node score="-0.0329778829255718">
													<SimplePredicate field="FARE" operator="greaterThan" value="13.931250000000002"/>
												</Node>
												<Node score="0.0022104526940887933">
													<SimplePredicate field="AGE" operator="greaterThan" value="22.500000000000004"/>
												</Node>
											</Node>
											<Node score="0.09488195635011909">
												<SimplePredicate field="FARE" operator="greaterThan" value="10.508350000000002"/>
											</Node>
										</Node>
										<Node score="0.1282050420363632">
											<SimplePredicate field="FARE" operator="greaterThan" value="29.850000000000005"/>
											<Node score="0.08932508261838322">
												<SimplePredicate field="FARE" operator="greaterThan" value="141.07705"/>
											</Node>
										</Node>
										<Node score="0.06392260705753355">
											<SimplePredicate field="AGE" operator="greaterThan" value="37.50000000000001"/>
										</Node>
										<Node score="0.08232719428001055">
											<SimplePredicate field="AGE" operator="lessOrEqual" value="27.500000000000004"/>
										</Node>
									</Node>
									<Node score="-0.11769628456892603">
										<SimplePredicate field="CABIN=186" operator="greaterThan" value="1.0000000180025095E-35"/>
										<Node score="-0.14586439624326017">
											<SimplePredicate field="SIBSP" operator="greaterThan" value="2.5000000000000004"/>
										</Node>
										<Node score="0.1020727202284346">
											<SimplePredicate field="AGE" operator="lessOrEqual" value="16.500000000000004"/>
										</Node>
										<Node score="-0.04683406852890848">
											<SimplePredicate field="FARE" operator="greaterThan" value="26.337500000000002"/>
											<Node score="0.02039681712433967">
												<SimplePredicate field="AGE" operator="greaterThan" value="31.500000000000004"/>
											</Node>
										</Node>
										<Node score="-0.02655574502454372">
											<SimplePredicate field="EMBARKED=0" operator="greaterThan" value="1.0000000180025095E-35"/>
										</Node>
										<Node score="-0.0985454692971377">
											<SimplePredicate field="FARE" operator="greaterThan" value="13.208350000000001"/>
										</Node>
										<Node score="-0.086373629174395">
											<SimplePredicate field="FARE" operator="greaterThan" value="7.910400000000001"/>
											<Node score="-0.018347693499831036">
												<SimplePredicate field="AGE" operator="greaterThan" value="38.50000000000001"/>
											</Node>
											<Node score="-0.0171954638764762">
												<SimplePredicate field="AGE" operator="lessOrEqual" value="20.250000000000004"/>
											</Node>
											<Node score="-0.12083757980696615">
												<SimplePredicate field="AGE" operator="lessOrEqual" value="26.500000000000004"/>
											</Node>
											<Node score="-0.029653156448478792">
												<SimplePredicate field="FARE" operator="greaterThan" value="8.081250000000002"/>
											</Node>
										</Node>
										<Node score="-0.12032181527079305">
											<SimplePredicate field="FARE" operator="greaterThan" value="7.8646"/>
										</Node>
										<Node score="3.0569108154905107E-4">
											<SimplePredicate field="AGE" operator="lessOrEqual" value="32.25000000000001"/>
											<Node score="-0.09606091620652327">
												<SimplePredicate field="AGE" operator="lessOrEqual" value="23.250000000000004"/>
											</Node>
										</Node>
										<Node score="-0.05996763222716947">
											<SimplePredicate field="FARE" operator="greaterThan" value="7.745850000000001"/>
										</Node>
									</Node>
									<Node score="0.04211169913230969">
										<SimplePredicate field="AGE" operator="lessOrEqual" value="36.25000000000001"/>
									</Node>
									<Node score="-0.05690984829088182">
										<SimplePredicate field="AGE" operator="lessOrEqual" value="47.50000000000001"/>
									</Node>
									<Node score="-0.028712015432169554">
										<SimplePredicate field="AGE" operator="greaterThan" value="50.50000000000001"/>
									</Node>
								</Node>
							</TreeModel>
						</Segment>
						<Segment id="12">
							<True/>
							<TreeModel functionName="regression" missingValueStrategy="none" noTrueChildStrategy="returnLastPrediction" splitCharacteristic="multiSplit">
								<MiningSchema>
									<MiningField name="PCLASS"/>
									<MiningField name="AGE"/>
									<MiningField name="FARE"/>
									<MiningField name="SEX"/>
									<MiningField name="EMBARKED"/>
								</MiningSchema>
								<Node score="-0.11908587843907337">
									<True/>
									<Node score="0.11288490276378307">
										<SimplePredicate field="SEX=0" operator="greaterThan" value="1.0000000180025095E-35"/>
										<Node score="0.06920344343741175">
											<SimplePredicate field="PCLASS" operator="greaterThan" value="2.5000000000000004"/>
											<Node score="-0.04568411027704708">
												<SimplePredicate field="FARE" operator="greaterThan" value="21.037500000000005"/>
											</Node>
											<Node score="0.09112048777561937">
												<SimplePredicate field="FARE" operator="greaterThan" value="15.372900000000001"/>
											</Node>
											<Node score="-0.041108630313757825">
												<SimplePredicate field="FARE" operator="greaterThan" value="7.883350000000001"/>
												<Node score="0.010434149344677006">
													<SimplePredicate field="AGE" operator="lessOrEqual" value="22.500000000000004"/>
												</Node>
											</Node>
											<Node score="0.03161483902789184">
												<SimplePredicate field="AGE" operator="greaterThan" value="13.500000000000002"/>
											</Node>
										</Node>
										<Node score="0.12481121471684123">
											<SimplePredicate field="FARE" operator="greaterThan" value="29.850000000000005"/>
											<Node score="0.08405424024024273">
												<SimplePredicate field="FARE" operator="greaterThan" value="141.07705"/>
											</Node>
										</Node>
										<Node score="0.09506502632004002">
											<SimplePredicate field="AGE" operator="greaterThan" value="25.500000000000004"/>
											<Node score="0.04790701680028835">
												<SimplePredicate field="FARE" operator="greaterThan" value="20.55"/>
											</Node>
										</Node>
									</Node>
									<Node score="0.04586618515955205">
										<SimplePredicate field="AGE" operator="lessOrEqual" value="13.500000000000002"/>
									</Node>
									<Node score="0.05468390192455245">
										<SimplePredicate field="FARE" operator="greaterThan" value="26.266650000000002"/>
										<Node score="-0.08380974637131894">
											<SimplePredicate field="FARE" operator="greaterThan" value="30.597900000000003"/>
											<Node score="-0.06227945080625359">
												<SimplePredicate field="AGE" operator="greaterThan" value="24.250000000000004"/>
												<Node score="-0.017145500103975638">
													<SimplePredicate field="FARE" operator="greaterThan" value="52.27710000000001"/>
													<Node score="0.08004393764432405">
														<SimplePredicate field="AGE" operator="lessOrEqual" value="38.50000000000001"/>
													</Node>
												</Node>
											</Node>
										</Node>
									</Node>
									<Node score="-0.1264854091954708">
										<SimplePredicate field="AGE" operator="greaterThan" value="32.25000000000001"/>
										<Node score="-0.074468887181856">
											<SimplePredicate field="FARE" operator="greaterThan" value="7.910400000000001"/>
											<Node score="-0.12273713110628043">
												<SimplePredicate field="FARE" operator="greaterThan" value="13.208350000000001"/>
											</Node>
											<Node score="-0.020621083439757045">
												<SimplePredicate field="AGE" operator="greaterThan" value="41.50000000000001"/>
											</Node>
										</Node>
									</Node>
									<Node score="-0.016336990682924553">
										<SimplePredicate field="AGE" operator="greaterThan" value="28.250000000000004"/>
									</Node>
									<Node score="-0.010777256805653689">
										<SimplePredicate field="EMBARKED=0" operator="greaterThan" value="1.0000000180025095E-35"/>
									</Node>
									<Node score="-0.0638094204723671">
										<SimplePredicate field="FARE" operator="greaterThan" value="8.925000000000002"/>
										<Node score="-0.1216487760146507">
											<SimplePredicate field="AGE" operator="greaterThan" value="19.500000000000004"/>
										</Node>
									</Node>
									<Node score="0.0028379633375031355">
										<SimplePredicate field="AGE" operator="lessOrEqual" value="27.500000000000004"/>
										<Node score="-0.08875010994798901">
											<SimplePredicate field="AGE" operator="lessOrEqual" value="24.250000000000004"/>
											<Node score="-0.02163760369483081">
												<SimplePredicate field="FARE" operator="greaterThan" value="7.910400000000001"/>
											</Node>
										</Node>
									</Node>
									<Node score="-0.08124367916766563">
										<SimplePredicate field="FARE" operator="greaterThan" value="7.745850000000001"/>
									</Node>
								</Node>
							</TreeModel>
						</Segment>
						<Segment id="13">
							<True/>
							<TreeModel functionName="regression" missingValueStrategy="none" noTrueChildStrategy="returnLastPrediction" splitCharacteristic="multiSplit">
								<MiningSchema>
									<MiningField name="PCLASS"/>
									<MiningField name="AGE"/>
									<MiningField name="SIBSP"/>
									<MiningField name="PARCH"/>
									<MiningField name="FARE"/>
									<MiningField name="SEX"/>
									<MiningField name="EMBARKED"/>
								</MiningSchema>
								<Node score="-0.11707987167105383">
									<True/>
									<Node score="0.04559943164936807">
										<SimplePredicate field="SEX=0" operator="greaterThan" value="1.0000000180025095E-35"/>
										<Node score="0.06667419342385962">
											<SimplePredicate field="PCLASS" operator="greaterThan" value="2.5000000000000004"/>
											<Node score="-0.0418414658043371">
												<SimplePredicate field="FARE" operator="greaterThan" value="21.037500000000005"/>
											</Node>
											<Node score="0.09262667104459926">
												<SimplePredicate field="AGE" operator="lessOrEqual" value="16.500000000000004"/>
											</Node>
											<Node score="0.059495957391953874">
												<SimplePredicate field="FARE" operator="greaterThan" value="15.075000000000001"/>
											</Node>
											<Node score="-0.06050478115621632">
												<SimplePredicate field="FARE" operator="greaterThan" value="7.977100000000001"/>
											</Node>
											<Node score="0.012329335915807543">
												<SimplePredicate field="AGE" operator="greaterThan" value="17.500000000000004"/>
											</Node>
										</Node>
										<Node score="0.1218999641067899">
											<SimplePredicate field="FARE" operator="greaterThan" value="29.850000000000005"/>
											<Node score="0.07911777938441118">
												<SimplePredicate field="FARE" operator="greaterThan" value="141.07705"/>
											</Node>
										</Node>
										<Node score="0.10902511013074666">
											<SimplePredicate field="PARCH" operator="greaterThan" value="1.0000000180025095E-35"/>
										</Node>
										<Node score="0.08587820783562528">
											<SimplePredicate field="AGE" operator="lessOrEqual" value="35.50000000000001"/>
										</Node>
									</Node>
									<Node score="-0.14101992566962393">
										<SimplePredicate field="SIBSP" operator="greaterThan" value="2.5000000000000004"/>
									</Node>
									<Node score="0.17344097921828316">
										<SimplePredicate field="AGE" operator="lessOrEqual" value="13.500000000000002"/>
									</Node>
									<Node score="0.07383514213114196">
										<SimplePredicate field="FARE" operator="greaterThan" value="26.266650000000002"/>
										<Node score="-0.070016653547812">
											<SimplePredicate field="AGE" operator="greaterThan" value="52.50000000000001"/>
										</Node>
										<Node score="-0.07634159448354093">
											<SimplePredicate field="FARE" operator="greaterThan" value="31.137500000000003"/>
											<Node score="0.07934552221151323">
												<SimplePredicate field="FARE" operator="greaterThan" value="52.27710000000001"/>
												<Node score="-0.030020302920659093">
													<SimplePredicate field="FARE" operator="greaterThan" value="72.39165000000001"/>
												</Node>
											</Node>
										</Node>
									</Node>
									<Node score="-0.12373629100633082">
										<SimplePredicate field="AGE" operator="greaterThan" value="32.25000000000001"/>
										<Node score="-0.06995952359213035">
											<SimplePredicate field="FARE" operator="greaterThan" value="7.910400000000001"/>
											<Node score="-0.12019487540727024">
												<SimplePredicate field="FARE" operator="greaterThan" value="13.208350000000001"/>
											</Node>
											<Node score="-0.01878031014863238">
												<SimplePredicate field="AGE" operator="greaterThan" value="41.50000000000001"/>
											</Node>
										</Node>
									</Node>
									<Node score="-0.014820730684987375">
										<SimplePredicate field="AGE" operator="greaterThan" value="28.250000000000004"/>
									</Node>
									<Node score="-0.009750817238683866">
										<SimplePredicate field="EMBARKED=0" operator="greaterThan" value="1.0000000180025095E-35"/>
									</Node>
									<Node score="-0.05845638774430594">
										<SimplePredicate field="FARE" operator="greaterThan" value="8.925000000000002"/>
										<Node score="-0.1192366667858219">
											<SimplePredicate field="AGE" operator="greaterThan" value="19.500000000000004"/>
										</Node>
									</Node>
									<Node score="-0.00384832811158017">
										<SimplePredicate field="AGE" operator="lessOrEqual" value="27.500000000000004"/>
										<Node score="-0.12340652717695505">
											<SimplePredicate field="AGE" operator="lessOrEqual" value="23.250000000000004"/>
											<Node score="-0.030574335296291444">
												<SimplePredicate field="FARE" operator="greaterThan" value="7.781250000000001"/>
											</Node>
										</Node>
									</Node>
									<Node score="-0.0771618928428">
										<SimplePredicate field="FARE" operator="greaterThan" value="7.745850000000001"/>
									</Node>
								</Node>
							</TreeModel>
						</Segment>
						<Segment id="14">
							<True/>
							<TreeModel functionName="regression" missingValueStrategy="none" noTrueChildStrategy="returnLastPrediction" splitCharacteristic="multiSplit">
								<MiningSchema>
									<MiningField name="PCLASS"/>
									<MiningField name="AGE"/>
									<MiningField name="SIBSP"/>
									<MiningField name="FARE"/>
									<MiningField name="SEX"/>
									<MiningField name="EMBARKED"/>
								</MiningSchema>
								<Node score="-0.02692927170253049">
									<True/>
									<Node score="0.1228980638706953">
										<SimplePredicate field="SEX=0" operator="greaterThan" value="1.0000000180025095E-35"/>
										<Node score="0.008163104943315434">
											<SimplePredicate field="PCLASS" operator="greaterThan" value="2.5000000000000004"/>
											<Node score="-0.06100946235390811">
												<SimplePredicate field="FARE" operator="greaterThan" value="24.80835"/>
											</Node>
											<Node score="0.006116037847929646">
												<SimplePredicate field="AGE" operator="greaterThan" value="7.500000000000001"/>
												<Node score="-0.03618049658600358">
													<SimplePredicate field="FARE" operator="greaterThan" value="13.931250000000002"/>
												</Node>
												<Node score="0.048824815782339506">
													<SimplePredicate field="AGE" operator="lessOrEqual" value="22.500000000000004"/>
												</Node>
											</Node>
											<Node score="0.08307737612129766">
												<SimplePredicate field="FARE" operator="greaterThan" value="10.508350000000002"/>
											</Node>
										</Node>
										<Node score="0.11938664793436743">
											<SimplePredicate field="FARE" operator="greaterThan" value="29.850000000000005"/>
											<Node score="0.07446001863269804">
												<SimplePredicate field="FARE" operator="greaterThan" value="141.07705"/>
											</Node>
										</Node>
										<Node score="0.048432775089712526">
											<SimplePredicate field="AGE" operator="greaterThan" value="37.50000000000001"/>
										</Node>
										<Node score="0.0641498316358622">
											<SimplePredicate field="AGE" operator="lessOrEqual" value="27.500000000000004"/>
										</Node>
									</Node>
									<Node score="-0.13287049196220516">
										<SimplePredicate field="SIBSP" operator="greaterThan" value="2.5000000000000004"/>
									</Node>
									<Node score="0.1587470478210135">
										<SimplePredicate field="AGE" operator="lessOrEqual" value="13.500000000000002"/>
									</Node>
									<Node score="0.06868536683934749">
										<SimplePredicate field="FARE" operator="greaterThan" value="26.266650000000002"/>
										<Node score="-0.06517043119833714">
											<SimplePredicate field="AGE" operator="greaterThan" value="52.50000000000001"/>
										</Node>
										<Node score="-0.06390907970388243">
											<SimplePredicate field="FARE" operator="greaterThan" value="30.597900000000003"/>
											<Node score="-0.010250905107494533">
												<SimplePredicate field="AGE" operator="greaterThan" value="24.250000000000004"/>
												<Node score="0.03583907410648558">
													<SimplePredicate field="AGE" operator="lessOrEqual" value="40.25000000000001"/>
												</Node>
											</Node>
										</Node>
									</Node>
									<Node score="-0.12131043269202878">
										<SimplePredicate field="AGE" operator="greaterThan" value="32.25000000000001"/>
										<Node score="-0.06565615522521709">
											<SimplePredicate field="FARE" operator="greaterThan" value="7.910400000000001"/>
											<Node score="-0.11797656087321551">
												<SimplePredicate field="FARE" operator="greaterThan" value="13.208350000000001"/>
											</Node>
											<Node score="-0.017088063262017946">
												<SimplePredicate field="AGE" operator="greaterThan" value="41.50000000000001"/>
											</Node>
										</Node>
									</Node>
									<Node score="-0.013436495895929141">
										<SimplePredicate field="AGE" operator="greaterThan" value="28.250000000000004"/>
									</Node>
									<Node score="-0.008818054933944528">
										<SimplePredicate field="EMBARKED=0" operator="greaterThan" value="1.0000000180025095E-35"/>
									</Node>
									<Node score="-0.128308357209132">
										<SimplePredicate field="FARE" operator="greaterThan" value="7.2396"/>
										<Node score="-0.008884537308742425">
											<SimplePredicate field="FARE" operator="greaterThan" value="7.745850000000001"/>
											<Node score="-0.11419523204845959">
												<SimplePredicate field="FARE" operator="greaterThan" value="7.797900000000001"/>
												<Node score="-0.10605011989042352">
													<SimplePredicate field="AGE" operator="greaterThan" value="20.250000000000004"/>
												</Node>
												<Node score="0.019586593251726517">
													<SimplePredicate field="FARE" operator="greaterThan" value="7.910400000000001"/>
													<Node score="-0.0707886155505914">
														<SimplePredicate field="FARE" operator="greaterThan" value="8.229150000000002"/>
													</Node>
												</Node>
											</Node>
										</Node>
									</Node>
								</Node>
							</TreeModel>
						</Segment>
						<Segment id="15">
							<True/>
							<TreeModel functionName="regression" missingValueStrategy="none" noTrueChildStrategy="returnLastPrediction" splitCharacteristic="multiSplit">
								<MiningSchema>
									<MiningField name="PCLASS"/>
									<MiningField name="AGE"/>
									<MiningField name="SIBSP"/>
									<MiningField name="FARE"/>
									<MiningField name="SEX"/>
									<MiningField name="EMBARKED"/>
								</MiningSchema>
								<Node score="-0.0717579642805115">
									<True/>
									<Node score="0.10101154646599197">
										<SimplePredicate field="SEX=0" operator="greaterThan" value="1.0000000180025095E-35"/>
										<Node score="0.06112844066012079">
											<SimplePredicate field="PCLASS" operator="greaterThan" value="2.5000000000000004"/>
											<Node score="-0.03777962600375778">
												<SimplePredicate field="FARE" operator="greaterThan" value="21.037500000000005"/>
											</Node>
											<Node score="0.07616063211673957">
												<SimplePredicate field="FARE" operator="greaterThan" value="15.372900000000001"/>
											</Node>
											<Node score="-0.022019194995476176">
												<SimplePredicate field="FARE" operator="greaterThan" value="7.977100000000001"/>
											</Node>
											<Node score="0.008394276095998894">
												<SimplePredicate field="AGE" operator="greaterThan" value="17.500000000000004"/>
											</Node>
										</Node>
										<Node score="0.11720497028165239">
											<SimplePredicate field="FARE" operator="greaterThan" value="29.850000000000005"/>
											<Node score="0.07003985147832313">
												<SimplePredicate field="FARE" operator="greaterThan" value="141.07705"/>
											</Node>
										</Node>
										<Node score="0.08192031762771924">
											<SimplePredicate field="AGE" operator="greaterThan" value="25.500000000000004"/>
											<Node score="0.03158579823483577">
												<SimplePredicate field="FARE" operator="greaterThan" value="20.55"/>
											</Node>
										</Node>
									</Node>
									<Node score="-0.12575890136510928">
										<SimplePredicate field="SIBSP" operator="greaterThan" value="2.5000000000000004"/>
									</Node>
									<Node score="0.14700083596759989">
										<SimplePredicate field="AGE" operator="lessOrEqual" value="13.500000000000002"/>
									</Node>
									<Node score="0.05869075342468048">
										<SimplePredicate field="FARE" operator="greaterThan" value="26.266650000000002"/>
										<Node score="-0.060626462807125484">
											<SimplePredicate field="AGE" operator="greaterThan" value="52.50000000000001"/>
										</Node>
										<Node score="-0.07061368059548577">
											<SimplePredicate field="FARE" operator="greaterThan" value="31.137500000000003"/>
											<Node score="0.07070416263619801">
												<SimplePredicate field="FARE" operator="greaterThan" value="52.27710000000001"/>
												<Node score="-0.0261149475026619">
													<SimplePredicate field="FARE" operator="greaterThan" value="72.39165000000001"/>
												</Node>
											</Node>
										</Node>
									</Node>
									<Node score="-0.1191603511087185">
										<SimplePredicate field="AGE" operator="greaterThan" value="32.25000000000001"/>
										<Node score="-0.06154165971175777">
											<SimplePredicate field="FARE" operator="greaterThan" value="7.910400000000001"/>
											<Node score="-0.11603248094986747">
												<SimplePredicate field="FARE" operator="greaterThan" value="13.208350000000001"/>
											</Node>
											<Node score="-0.01553470795867647">
												<SimplePredicate field="AGE" operator="greaterThan" value="41.50000000000001"/>
											</Node>
										</Node>
									</Node>
									<Node score="0.014281692961602624">
										<SimplePredicate field="AGE" operator="greaterThan" value="26.500000000000004"/>
										<Node score="-0.07736253430804911">
											<SimplePredicate field="FARE" operator="greaterThan" value="10.481250000000001"/>
										</Node>
									</Node>
									<Node score="-0.0026838648953757685">
										<SimplePredicate field="EMBARKED=0" operator="greaterThan" value="1.0000000180025095E-35"/>
									</Node>
									<Node score="-0.03202338182578239">
										<SimplePredicate field="SIBSP" operator="greaterThan" value="1.0000000180025095E-35"/>
									</Node>
									<Node score="-0.04412889674496761">
										<SimplePredicate field="AGE" operator="lessOrEqual" value="19.500000000000004"/>
									</Node>
									<Node score="-0.11274846384153125">
										<SimplePredicate field="FARE" operator="greaterThan" value="7.797900000000001"/>
										<Node score="-0.06559438588170628">
											<SimplePredicate field="FARE" operator="greaterThan" value="8.081250000000002"/>
										</Node>
										<Node score="-0.12046276574780451">
											<SimplePredicate field="FARE" operator="greaterThan" value="7.910400000000001"/>
										</Node>
									</Node>
									<Node score="-0.03127462194119978">
										<SimplePredicate field="FARE" operator="greaterThan" value="7.687500000000001"/>
									</Node>
								</Node>
							</TreeModel>
						</Segment>
						<Segment id="16">
							<True/>
							<TreeModel functionName="regression" missingValueStrategy="none" noTrueChildStrategy="returnLastPrediction" splitCharacteristic="multiSplit">
								<MiningSchema>
									<MiningField name="PCLASS"/>
									<MiningField name="AGE"/>
									<MiningField name="SIBSP"/>
									<MiningField name="PARCH"/>
									<MiningField name="FARE"/>
									<MiningField name="SEX"/>
									<MiningField name="CABIN"/>
									<MiningField name="EMBARKED"/>
								</MiningSchema>
								<Node score="-0.12100616063966252">
									<True/>
									<Node score="0.05280212259872822">
										<SimplePredicate field="SEX=0" operator="greaterThan" value="1.0000000180025095E-35"/>
										<Node score="0.06000312515913007">
											<SimplePredicate field="PCLASS" operator="greaterThan" value="2.5000000000000004"/>
											<Node score="-0.05493217943558703">
												<SimplePredicate field="FARE" operator="greaterThan" value="24.80835"/>
											</Node>
											<Node score="-0.026765201812416484">
												<SimplePredicate field="EMBARKED=2" operator="greaterThan" value="1.0000000180025095E-35"/>
												<Node score="0.019820778144327214">
													<SimplePredicate field="AGE" operator="lessOrEqual" value="27.500000000000004"/>
												</Node>
											</Node>
											<Node score="0.005635554979296704">
												<SimplePredicate field="AGE" operator="greaterThan" value="8.500000000000002"/>
											</Node>
										</Node>
										<Node score="0.1153021505396529">
											<SimplePredicate field="FARE" operator="greaterThan" value="29.850000000000005"/>
											<Node score="0.06582726910864867">
												<SimplePredicate field="FARE" operator="greaterThan" value="141.07705"/>
											</Node>
										</Node>
										<Node score="0.09831862282426035">
											<SimplePredicate field="PARCH" operator="greaterThan" value="1.0000000180025095E-35"/>
										</Node>
									</Node>
									<Node score="0.06677767934916028">
										<SimplePredicate field="FARE" operator="greaterThan" value="7.910400000000001"/>
										<Node score="-0.11945332300001595">
											<SimplePredicate field="SIBSP" operator="greaterThan" value="2.5000000000000004"/>
										</Node>
										<Node score="0.13732179783066042">
											<SimplePredicate field="AGE" operator="lessOrEqual" value="13.500000000000002"/>
										</Node>
										<Node score="0.013027750729121351">
											<SimplePredicate field="CABIN=186" operator="greaterThan" value="1.0000000180025095E-35"/>
											<Node score="0.02743905420450752">
												<SimplePredicate field="PCLASS" operator="greaterThan" value="2.5000000000000004"/>
												<Node score="0.05232996696943394">
													<SimplePredicate field="FARE" operator="greaterThan" value="15.075000000000001"/>
													<Node score="-0.0017002244075468695">
														<SimplePredicate field="AGE" operator="greaterThan" value="20.250000000000004"/>
													</Node>
												</Node>
												<Node score="-0.12018406441020944">
													<SimplePredicate field="FARE" operator="greaterThan" value="8.229150000000002"/>
													<Node score="-0.031370357954153424">
														<SimplePredicate field="AGE" operator="greaterThan" value="25.500000000000004"/>
													</Node>
												</Node>
												<Node score="-0.032807797505450466">
													<SimplePredicate field="AGE" operator="greaterThan" value="20.250000000000004"/>
												</Node>
											</Node>
											<Node score="-0.0979472129841933">
												<SimplePredicate field="AGE" operator="lessOrEqual" value="30.250000000000004"/>
											</Node>
											<Node score="-0.10261751607762588">
												<SimplePredicate field="FARE" operator="greaterThan" value="13.931250000000002"/>
												<Node score="2.841540004974707E-4">
													<SimplePredicate field="AGE" operator="lessOrEqual" value="50.50000000000001"/>
												</Node>
											</Node>
										</Node>
										<Node score="-0.05921616820524769">
											<SimplePredicate field="FARE" operator="greaterThan" value="37.752100000000006"/>
											<Node score="0.04756132037174808">
												<SimplePredicate field="EMBARKED=0" operator="greaterThan" value="1.0000000180025095E-35"/>
											</Node>
										</Node>
										<Node score="0.018901145212813737">
											<SimplePredicate field="AGE" operator="greaterThan" value="39.50000000000001"/>
										</Node>
									</Node>
									<Node score="-0.014009850678034896">
										<SimplePredicate field="AGE" operator="lessOrEqual" value="29.500000000000004"/>
										<Node score="-0.08736879207897302">
											<SimplePredicate field="AGE" operator="lessOrEqual" value="20.250000000000004"/>
										</Node>
									</Node>
									<Node score="-0.034271550937146275">
										<SimplePredicate field="FARE" operator="greaterThan" value="7.227100000000001"/>
										<Node score="-0.11699454367262381">
											<SimplePredicate field="FARE" operator="greaterThan" value="7.883350000000001"/>
										</Node>
										<Node score="-0.08780977694741728">
											<SimplePredicate field="EMBARKED=1" operator="greaterThan" value="1.0000000180025095E-35"/>
										</Node>
									</Node>
								</Node>
							</TreeModel>
						</Segment>
						<Segment id="17">
							<True/>
							<TreeModel functionName="regression" missingValueStrategy="none" noTrueChildStrategy="returnLastPrediction" splitCharacteristic="multiSplit">
								<MiningSchema>
									<MiningField name="PCLASS"/>
									<MiningField name="AGE"/>
									<MiningField name="SIBSP"/>
									<MiningField name="FARE"/>
									<MiningField name="SEX"/>
									<MiningField name="CABIN"/>
									<MiningField name="EMBARKED"/>
								</MiningSchema>
								<Node score="-0.11882368063662402">
									<True/>
									<Node score="0.09374388998057392">
										<SimplePredicate field="SEX=0" operator="greaterThan" value="1.0000000180025095E-35"/>
										<Node score="0.051664691239180785">
											<SimplePredicate field="PCLASS" operator="greaterThan" value="2.5000000000000004"/>
											<Node score="-0.03333932228013619">
												<SimplePredicate field="FARE" operator="greaterThan" value="21.037500000000005"/>
											</Node>
											<Node score="0.07810725394308685">
												<SimplePredicate field="AGE" operator="lessOrEqual" value="16.500000000000004"/>
											</Node>
											<Node score="0.047632576335648255">
												<SimplePredicate field="FARE" operator="greaterThan" value="15.075000000000001"/>
											</Node>
											<Node score="-0.05543644246124101">
												<SimplePredicate field="FARE" operator="greaterThan" value="7.977100000000001"/>
											</Node>
											<Node score="0.006529738742633438">
												<SimplePredicate field="AGE" operator="greaterThan" value="17.500000000000004"/>
											</Node>
										</Node>
										<Node score="0.11363569141706292">
											<SimplePredicate field="FARE" operator="greaterThan" value="29.850000000000005"/>
											<Node score="0.061800779759366625">
												<SimplePredicate field="FARE" operator="greaterThan" value="141.07705"/>
											</Node>
										</Node>
										<Node score="0.07416159483178426">
											<SimplePredicate field="AGE" operator="greaterThan" value="25.500000000000004"/>
											<Node score="0.023124256296917455">
												<SimplePredicate field="FARE" operator="greaterThan" value="20.55"/>
											</Node>
										</Node>
									</Node>
									<Node score="-7.108503049434812E-4">
										<SimplePredicate field="FARE" operator="greaterThan" value="7.910400000000001"/>
										<Node score="-0.11377964546470586">
											<SimplePredicate field="SIBSP" operator="greaterThan" value="2.5000000000000004"/>
										</Node>
										<Node score="0.12914071070685712">
											<SimplePredicate field="AGE" operator="lessOrEqual" value="13.500000000000002"/>
										</Node>
										<Node score="0.005844281396059661">
											<SimplePredicate field="CABIN=186" operator="greaterThan" value="1.0000000180025095E-35"/>
											<Node score="0.02426499083022774">
												<SimplePredicate field="PCLASS" operator="greaterThan" value="2.5000000000000004"/>
												<Node score="0.023416506882282362">
													<SimplePredicate field="FARE" operator="greaterThan" value="15.075000000000001"/>
												</Node>
												<Node score="-0.11799965240973874">
													<SimplePredicate field="FARE" operator="greaterThan" value="8.229150000000002"/>
													<Node score="-0.028770387672829897">
														<SimplePredicate field="AGE" operator="greaterThan" value="25.500000000000004"/>
													</Node>
												</Node>
												<Node score="-0.030121397105338895">
													<SimplePredicate field="AGE" operator="greaterThan" value="20.250000000000004"/>
												</Node>
											</Node>
											<Node score="-0.09377975232326884">
												<SimplePredicate field="AGE" operator="lessOrEqual" value="30.250000000000004"/>
											</Node>
											<Node score="-0.05317000954180037">
												<SimplePredicate field="AGE" operator="greaterThan" value="35.50000000000001"/>
											</Node>
										</Node>
										<Node score="-0.02165274949476937">
											<SimplePredicate field="AGE" operator="greaterThan" value="43.50000000000001"/>
										</Node>
										<Node score="0.08147480218228557">
											<SimplePredicate field="AGE" operator="greaterThan" value="31.500000000000004"/>
										</Node>
									</Node>
									<Node score="0.012938456397019764">
										<SimplePredicate field="AGE" operator="lessOrEqual" value="29.500000000000004"/>
										<Node score="-0.088802133057651">
											<SimplePredicate field="FARE" operator="greaterThan" value="7.2396"/>
											<Node score="-0.01827426854066427">
												<SimplePredicate field="AGE" operator="greaterThan" value="24.250000000000004"/>
											</Node>
										</Node>
									</Node>
									<Node score="-0.031554947722844125">
										<SimplePredicate field="FARE" operator="greaterThan" value="7.227100000000001"/>
										<Node score="-0.11523669322046473">
											<SimplePredicate field="FARE" operator="greaterThan" value="7.883350000000001"/>
										</Node>
